digraph Tree {
node [shape=box] ;
0 [label="view <= 3.5\ngini = 0.014\nsamples = 16209\nvalue = [16094, 115]\nclass = 0"] ;
1 [label="long <= -122.51\ngini = 0.003\nsamples = 15976\nvalue = [15956, 20]\nclass = 0"] ;
0 -> 1 [labeldistance=2.5, labelangle=45, headlabel="True"] ;
2 [label="date <= 207.5\ngini = 0.375\nsamples = 4\nvalue = [1, 3]\nclass = 1"] ;
1 -> 2 ;
3 [label="gini = 0.0\nsamples = 3\nvalue = [0, 3]\nclass = 1"] ;
2 -> 3 ;
4 [label="gini = 0.0\nsamples = 1\nvalue = [1, 0]\nclass = 0"] ;
2 -> 4 ;
5 [label="long <= -122.416\ngini = 0.002\nsamples = 15972\nvalue = [15955, 17]\nclass = 0"] ;
1 -> 5 ;
6 [label="price <= 600000.0\ngini = 0.184\nsamples = 78\nvalue = [70, 8]\nclass = 0"] ;
5 -> 6 ;
7 [label="sqft_living15 <= 1206.0\ngini = 0.032\nsamples = 62\nvalue = [61, 1]\nclass = 0"] ;
6 -> 7 ;
8 [label="gini = 0.0\nsamples = 1\nvalue = [0, 1]\nclass = 1"] ;
7 -> 8 ;
9 [label="gini = 0.0\nsamples = 61\nvalue = [61, 0]\nclass = 0"] ;
7 -> 9 ;
10 [label="view <= 0.5\ngini = 0.492\nsamples = 16\nvalue = [9, 7]\nclass = 0"] ;
6 -> 10 ;
11 [label="gini = 0.0\nsamples = 5\nvalue = [5, 0]\nclass = 0"] ;
10 -> 11 ;
12 [label="gini = 0.463\nsamples = 11\nvalue = [4, 7]\nclass = 1"] ;
10 -> 12 ;
13 [label="price <= 2359480.0\ngini = 0.001\nsamples = 15894\nvalue = [15885, 9]\nclass = 0"] ;
5 -> 13 ;
14 [label="view <= 2.5\ngini = 0.001\nsamples = 15835\nvalue = [15829, 6]\nclass = 0"] ;
13 -> 14 ;
15 [label="gini = 0.0\nsamples = 15471\nvalue = [15469, 2]\nclass = 0"] ;
14 -> 15 ;
16 [label="gini = 0.022\nsamples = 364\nvalue = [360, 4]\nclass = 0"] ;
14 -> 16 ;
17 [label="bathrooms <= 2.75\ngini = 0.097\nsamples = 59\nvalue = [56, 3]\nclass = 0"] ;
13 -> 17 ;
18 [label="gini = 0.0\nsamples = 3\nvalue = [0, 3]\nclass = 1"] ;
17 -> 18 ;
19 [label="gini = 0.0\nsamples = 56\nvalue = [56, 0]\nclass = 0"] ;
17 -> 19 ;
20 [label="lat <= 47.53\ngini = 0.483\nsamples = 233\nvalue = [138, 95]\nclass = 0"] ;
0 -> 20 [labeldistance=2.5, labelangle=-45, headlabel="False"] ;
21 [label="long <= -122.163\ngini = 0.441\nsamples = 64\nvalue = [21, 43]\nclass = 1"] ;
20 -> 21 ;
22 [label="price <= 537500.0\ngini = 0.371\nsamples = 57\nvalue = [14, 43]\nclass = 1"] ;
21 -> 22 ;
23 [label="long <= -122.295\ngini = 0.498\nsamples = 17\nvalue = [8, 9]\nclass = 1"] ;
22 -> 23 ;
24 [label="gini = 0.298\nsamples = 11\nvalue = [2, 9]\nclass = 1"] ;
23 -> 24 ;
25 [label="gini = 0.0\nsamples = 6\nvalue = [6, 0]\nclass = 0"] ;
23 -> 25 ;
26 [label="id <= 8709400064.0\ngini = 0.255\nsamples = 40\nvalue = [6, 34]\nclass = 1"] ;
22 -> 26 ;
27 [label="gini = 0.224\nsamples = 39\nvalue = [5, 34]\nclass = 1"] ;
26 -> 27 ;
28 [label="gini = 0.0\nsamples = 1\nvalue = [1, 0]\nclass = 0"] ;
26 -> 28 ;
29 [label="gini = 0.0\nsamples = 7\nvalue = [7, 0]\nclass = 0"] ;
21 -> 29 ;
30 [label="price <= 1587500.0\ngini = 0.426\nsamples = 169\nvalue = [117, 52]\nclass = 0"] ;
20 -> 30 ;
31 [label="sqft_living <= 2305.0\ngini = 0.201\nsamples = 97\nvalue = [86, 11]\nclass = 0"] ;
30 -> 31 ;
32 [label="price <= 995000.0\ngini = 0.469\nsamples = 24\nvalue = [15, 9]\nclass = 0"] ;
31 -> 32 ;
33 [label="gini = 0.208\nsamples = 17\nvalue = [15, 2]\nclass = 0"] ;
32 -> 33 ;
34 [label="gini = 0.0\nsamples = 7\nvalue = [0, 7]\nclass = 1"] ;
32 -> 34 ;
35 [label="price <= 1392500.0\ngini = 0.053\nsamples = 73\nvalue = [71, 2]\nclass = 0"] ;
31 -> 35 ;
36 [label="gini = 0.0\nsamples = 63\nvalue = [63, 0]\nclass = 0"] ;
35 -> 36 ;
37 [label="gini = 0.32\nsamples = 10\nvalue = [8, 2]\nclass = 0"] ;
35 -> 37 ;
38 [label="long <= -122.281\ngini = 0.49\nsamples = 72\nvalue = [31, 41]\nclass = 1"] ;
30 -> 38 ;
39 [label="gini = 0.0\nsamples = 14\nvalue = [14, 0]\nclass = 0"] ;
38 -> 39 ;
40 [label="zipcode <= 98007.0\ngini = 0.414\nsamples = 58\nvalue = [17, 41]\nclass = 1"] ;
38 -> 40 ;
41 [label="gini = 0.26\nsamples = 13\nvalue = [11, 2]\nclass = 0"] ;
40 -> 41 ;
42 [label="gini = 0.231\nsamples = 45\nvalue = [6, 39]\nclass = 1"] ;
40 -> 42 ;
}